-0.04075896461851447 0.7548787960603629 -0.6527015682924389 -0.8618597343526411 -0.22596317794988496 0.933175179522185 0.9776653218562004 -0.9061698784725123
0.44756928113099503 0.7356280605512455 0.010963302888078896 0.062036749405750324 -0.5715208810214152 -0.9596578886619804 -0.8764535046166182 -0.4278346379233815
-0.424264767611062 0.059036436954033135 -0.023740584381759522 -0.4331203779550267 -0.5781396657582267 -0.2923269854106745 0.8148027208557805 0.25105226849968326
0.50150377477613 -0.8713699280024096 0.9363796791764165 0.5809384933969151 0.8731091564624998 0.8090609987005333 -0.00880781682117071 -0.3756545201268455
-0.1538122791324812 -0.3595295014961384 -0.37163352036324393 -0.17078690684013087 0.6239767224517101 0.47743083552866006 -0.6505910559343269 -0.6428388908626967
-0.9189749645069001 -0.7212491143766799 -0.40169601389884724 0.07019782301002264 0.21751589858126108 0.7523010615448089 -0.9041153349901532 0.5029276685533355
0.9669010338107737 -0.42491051100958965 0.21712033544187115 -0.7907661389826373 0.9806866026039311 0.7230733986324371 -0.1865178822240121 -0.7584454170709667
-0.22602264945143835 -0.7794187590082269 -0.7014371142187266 -0.7974897031367703 -0.8123503423448277 0.7071125139961147 -0.9563571786476324 0.30278165133606727
0.5077914587619703 -0.3803292926290627 0.17090896152529078 0.16577725772495078 -0.2196883521806312 -0.49832192917446316 -0.3144487612451863 0.7387715165878093
0.8683874143649708 -0.025090909255474726 0.553974102985346 -0.3981665311533349 -0.37731674790604175 -0.751228029303431 0.8138780390789793 -0.7899920464297834
1.8861048121370383 -0.3083427404069097 0.8100436905825772 0.8779136316989692 -0.2343867271855582 0.9519630381712691 1.7337277918445124 0.44856222881020513 -0.05885165077531607 0.391797831872186
